<?xml version="1.0"?>
<MethodSetup Method="MLP::MLP">
  <GeneralInfo>
    <Info name="TMVA Release" value="4.2.0 [262656]"/>
    <Info name="ROOT Release" value="5.34/20 [336404]"/>
    <Info name="Creator" value="admorris"/>
    <Info name="Date" value="Mon May 18 12:41:22 2015"/>
    <Info name="Host" value="Linux lxbuild101.cern.ch 2.6.32-358.2.1.el6.x86_64 #1 SMP Wed Mar 13 08:24:06 CET 2013 x86_64 x86_64 x86_64 GNU/Linux"/>
    <Info name="Dir" value="/afs/cern.ch/work/a/admorris/BsphiKK/mva"/>
    <Info name="Training events" value="22661"/>
    <Info name="TrainingTime" value="8.52144680e+01"/>
    <Info name="AnalysisType" value="Classification"/>
  </GeneralInfo>
  <Options>
    <Option name="NCycles" modified="Yes">600</Option>
    <Option name="HiddenLayers" modified="Yes">N+5</Option>
    <Option name="NeuronType" modified="Yes">tanh</Option>
    <Option name="RandomSeed" modified="No">1</Option>
    <Option name="EstimatorType" modified="No">MSE</Option>
    <Option name="NeuronInputType" modified="No">sum</Option>
    <Option name="V" modified="Yes">False</Option>
    <Option name="VerbosityLevel" modified="No">Default</Option>
    <Option name="VarTransform" modified="Yes">Norm</Option>
    <Option name="H" modified="Yes">True</Option>
    <Option name="CreateMVAPdfs" modified="No">False</Option>
    <Option name="IgnoreNegWeightsInTraining" modified="No">False</Option>
    <Option name="TrainingMethod" modified="No">BP</Option>
    <Option name="LearningRate" modified="No">2.000000e-02</Option>
    <Option name="DecayRate" modified="No">1.000000e-02</Option>
    <Option name="TestRate" modified="Yes">5</Option>
    <Option name="EpochMonitoring" modified="No">False</Option>
    <Option name="Sampling" modified="No">1.000000e+00</Option>
    <Option name="SamplingEpoch" modified="No">1.000000e+00</Option>
    <Option name="SamplingImportance" modified="No">1.000000e+00</Option>
    <Option name="SamplingTraining" modified="No">True</Option>
    <Option name="SamplingTesting" modified="No">False</Option>
    <Option name="ResetStep" modified="No">50</Option>
    <Option name="Tau" modified="No">3.000000e+00</Option>
    <Option name="BPMode" modified="No">sequential</Option>
    <Option name="BatchSize" modified="No">-1</Option>
    <Option name="ConvergenceImprove" modified="No">1.000000e-30</Option>
    <Option name="ConvergenceTests" modified="No">-1</Option>
    <Option name="UseRegulator" modified="No">False</Option>
    <Option name="UpdateLimit" modified="No">10000</Option>
    <Option name="CalculateErrors" modified="No">False</Option>
    <Option name="WeightRange" modified="No">1.000000e+00</Option>
  </Options>
  <Variables NVar="5">
    <Variable VarIndex="0" Expression="B_s0_ln_FDCHI2" Label="B_s0_ln_FDCHI2" Title="B_s0_ln_FDCHI2" Unit="" Internal="B_s0_ln_FDCHI2" Type="F" Min="5.52172232e+00" Max="1.43609724e+01"/>
    <Variable VarIndex="1" Expression="B_s0_ln_IPCHI2" Label="B_s0_ln_IPCHI2" Title="B_s0_ln_IPCHI2" Unit="" Internal="B_s0_ln_IPCHI2" Type="F" Min="-8.89601803e+00" Max="2.99566317e+00"/>
    <Variable VarIndex="2" Expression="B_s0_ln_EVCHI2" Label="B_s0_ln_EVCHI2" Title="B_s0_ln_EVCHI2" Unit="" Internal="B_s0_ln_EVCHI2" Type="F" Min="-4.45417881e+00" Max="2.30202627e+00"/>
    <Variable VarIndex="3" Expression="B_s0_PT_GeV" Label="B_s0_PT_GeV" Title="B_s0_PT_GeV" Unit="" Internal="B_s0_PT_GeV" Type="F" Min="2.47707404e-02" Max="7.46488190e+01"/>
    <Variable VarIndex="4" Expression="B_s0_Eta" Label="B_s0_Eta" Title="B_s0_Eta" Unit="" Internal="B_s0_Eta" Type="F" Min="1.91479802e+00" Max="8.57907009e+00"/>
  </Variables>
  <Spectators NSpec="0"/>
  <Classes NClass="2">
    <Class Name="Signal" Index="0"/>
    <Class Name="Background" Index="1"/>
  </Classes>
  <Transformations NTransformations="1">
    <Transform Name="Normalize">
      <Selection>
        <Input NInputs="5">
          <Input Type="Variable" Label="B_s0_ln_FDCHI2" Expression="B_s0_ln_FDCHI2"/>
          <Input Type="Variable" Label="B_s0_ln_IPCHI2" Expression="B_s0_ln_IPCHI2"/>
          <Input Type="Variable" Label="B_s0_ln_EVCHI2" Expression="B_s0_ln_EVCHI2"/>
          <Input Type="Variable" Label="B_s0_PT_GeV" Expression="B_s0_PT_GeV"/>
          <Input Type="Variable" Label="B_s0_Eta" Expression="B_s0_Eta"/>
        </Input>
        <Output NOutputs="5">
          <Output Type="Variable" Label="B_s0_ln_FDCHI2" Expression="B_s0_ln_FDCHI2"/>
          <Output Type="Variable" Label="B_s0_ln_IPCHI2" Expression="B_s0_ln_IPCHI2"/>
          <Output Type="Variable" Label="B_s0_ln_EVCHI2" Expression="B_s0_ln_EVCHI2"/>
          <Output Type="Variable" Label="B_s0_PT_GeV" Expression="B_s0_PT_GeV"/>
          <Output Type="Variable" Label="B_s0_Eta" Expression="B_s0_Eta"/>
        </Output>
      </Selection>
      <Class ClassIndex="0">
        <Ranges>
          <Range Index="0" Min="5.5217223167419434e+00" Max="1.4127758026123047e+01"/>
          <Range Index="1" Min="-8.8960180282592773e+00" Max="2.9913434982299805e+00"/>
          <Range Index="2" Min="-4.4541788101196289e+00" Max="2.3020262718200684e+00"/>
          <Range Index="3" Min="1.1925789713859558e-01" Max="7.4648818969726562e+01"/>
          <Range Index="4" Min="1.9147980213165283e+00" Max="6.4989476203918457e+00"/>
        </Ranges>
      </Class>
      <Class ClassIndex="1">
        <Ranges>
          <Range Index="0" Min="5.5221686363220215e+00" Max="1.4360972404479980e+01"/>
          <Range Index="1" Min="-4.5222516059875488e+00" Max="2.9956631660461426e+00"/>
          <Range Index="2" Min="-2.4407978057861328e+00" Max="2.2988214492797852e+00"/>
          <Range Index="3" Min="2.4770740419626236e-02" Max="4.1592182159423828e+01"/>
          <Range Index="4" Min="2.0632593631744385e+00" Max="8.5790700912475586e+00"/>
        </Ranges>
      </Class>
      <Class ClassIndex="2">
        <Ranges>
          <Range Index="0" Min="5.5217223167419434e+00" Max="1.4360972404479980e+01"/>
          <Range Index="1" Min="-8.8960180282592773e+00" Max="2.9956631660461426e+00"/>
          <Range Index="2" Min="-4.4541788101196289e+00" Max="2.3020262718200684e+00"/>
          <Range Index="3" Min="2.4770740419626236e-02" Max="7.4648818969726562e+01"/>
          <Range Index="4" Min="1.9147980213165283e+00" Max="8.5790700912475586e+00"/>
        </Ranges>
      </Class>
    </Transform>
  </Transformations>
  <MVAPdfs/>
  <Weights>
    <Layout NLayers="3">
      <Layer Index="0" NNeurons="6">
        <Neuron NSynapses="10">
          4.3397663958920496e-01 1.0889993392602590e+00 7.4266037805689422e-01 1.3821193250161379e+00 -1.0732549791812429e+00 -1.2166481350153286e+00 -2.2349926706594943e+00 1.0357153691042724e+00 -3.3698361418386460e-02 -7.0972805342348433e-01 
        </Neuron>
        <Neuron NSynapses="10">
          5.0018009900493154e-01 -1.0347234926243301e+00 -8.6764803744514751e-01 3.4735572799285330e-01 -1.3626504488026647e-01 6.7749917688166039e-01 2.5759254113210215e+00 1.7706272896755961e+00 9.1361221057373743e-01 6.9210745104041227e-01 
        </Neuron>
        <Neuron NSynapses="10">
          -2.1874331497484945e+00 -4.7764824895100960e-01 1.3994399178324590e+00 8.2300972106003267e-01 -7.9818060343014274e-01 -1.9987941937652856e-01 1.7204932469238898e+00 -1.6050387933617725e+00 -1.6240802938901151e+00 4.4143306742063171e-01 
        </Neuron>
        <Neuron NSynapses="10">
          3.4911293396609325e-02 1.0767565046356737e+00 -4.0988961867741530e-01 9.3751777599318520e-01 7.6815137727797544e-01 -1.1913462227034484e+00 -3.4967509418581977e+00 7.3029933753802290e-01 -7.3328109575360256e-01 1.0169783368943566e+00 
        </Neuron>
        <Neuron NSynapses="10">
          3.6047300282720018e-01 -4.8438884528152581e-01 1.4608251687136862e+00 6.3409900685305354e-01 -9.6595205808899590e-03 -2.6306354744878058e-01 1.2601946002838640e+00 1.1440524274911523e+00 1.0490219443200843e+00 2.3398389394548009e+00 
        </Neuron>
        <Neuron NSynapses="10">
          9.0356047862134925e-01 1.3902657269839569e+00 -1.3664538936443853e+00 1.7739920596911281e+00 -2.1436888740359050e+00 -2.0453372264846736e+00 -7.3722108751172932e+00 -2.3432618497230364e+00 3.4994255394624857e-01 -1.4471287421441936e+00 
        </Neuron>
      </Layer>
      <Layer Index="1" NNeurons="11">
        <Neuron NSynapses="1">
          -4.5788742042173064e-01 
        </Neuron>
        <Neuron NSynapses="1">
          5.0563953518932747e-01 
        </Neuron>
        <Neuron NSynapses="1">
          -4.5581207918047661e-01 
        </Neuron>
        <Neuron NSynapses="1">
          2.3689758155187562e-01 
        </Neuron>
        <Neuron NSynapses="1">
          9.1079187804974793e-01 
        </Neuron>
        <Neuron NSynapses="1">
          4.9247393202415535e-01 
        </Neuron>
        <Neuron NSynapses="1">
          -7.7687466011632622e-01 
        </Neuron>
        <Neuron NSynapses="1">
          -1.3825291287838253e+00 
        </Neuron>
        <Neuron NSynapses="1">
          4.5531489991414498e-01 
        </Neuron>
        <Neuron NSynapses="1">
          3.5229053323880172e-01 
        </Neuron>
        <Neuron NSynapses="1">
          -3.1086163547545809e-01 
        </Neuron>
      </Layer>
      <Layer Index="2" NNeurons="1">
        <Neuron NSynapses="0"/>
      </Layer>
    </Layout>
  </Weights>
</MethodSetup>
