<?xml version="1.0"?>
<MethodSetup Method="MLP::MLP">
  <GeneralInfo>
    <Info name="TMVA Release" value="4.2.0 [262656]"/>
    <Info name="ROOT Release" value="5.34/20 [336404]"/>
    <Info name="Creator" value="admorris"/>
    <Info name="Date" value="Mon May 18 22:03:46 2015"/>
    <Info name="Host" value="Linux lxbuild101.cern.ch 2.6.32-358.2.1.el6.x86_64 #1 SMP Wed Mar 13 08:24:06 CET 2013 x86_64 x86_64 x86_64 GNU/Linux"/>
    <Info name="Dir" value="/afs/cern.ch/work/a/admorris/BsphiKK/mva"/>
    <Info name="Training events" value="22661"/>
    <Info name="TrainingTime" value="1.10820337e+02"/>
    <Info name="AnalysisType" value="Classification"/>
  </GeneralInfo>
  <Options>
    <Option name="NCycles" modified="Yes">600</Option>
    <Option name="HiddenLayers" modified="Yes">N+5</Option>
    <Option name="NeuronType" modified="Yes">tanh</Option>
    <Option name="RandomSeed" modified="No">1</Option>
    <Option name="EstimatorType" modified="No">MSE</Option>
    <Option name="NeuronInputType" modified="No">sum</Option>
    <Option name="V" modified="Yes">False</Option>
    <Option name="VerbosityLevel" modified="No">Default</Option>
    <Option name="VarTransform" modified="Yes">Norm</Option>
    <Option name="H" modified="Yes">True</Option>
    <Option name="CreateMVAPdfs" modified="No">False</Option>
    <Option name="IgnoreNegWeightsInTraining" modified="No">False</Option>
    <Option name="TrainingMethod" modified="No">BP</Option>
    <Option name="LearningRate" modified="No">2.000000e-02</Option>
    <Option name="DecayRate" modified="No">1.000000e-02</Option>
    <Option name="TestRate" modified="Yes">5</Option>
    <Option name="EpochMonitoring" modified="No">False</Option>
    <Option name="Sampling" modified="No">1.000000e+00</Option>
    <Option name="SamplingEpoch" modified="No">1.000000e+00</Option>
    <Option name="SamplingImportance" modified="No">1.000000e+00</Option>
    <Option name="SamplingTraining" modified="No">True</Option>
    <Option name="SamplingTesting" modified="No">False</Option>
    <Option name="ResetStep" modified="No">50</Option>
    <Option name="Tau" modified="No">3.000000e+00</Option>
    <Option name="BPMode" modified="No">sequential</Option>
    <Option name="BatchSize" modified="No">-1</Option>
    <Option name="ConvergenceImprove" modified="No">1.000000e-30</Option>
    <Option name="ConvergenceTests" modified="No">-1</Option>
    <Option name="UseRegulator" modified="No">False</Option>
    <Option name="UpdateLimit" modified="No">10000</Option>
    <Option name="CalculateErrors" modified="No">False</Option>
    <Option name="WeightRange" modified="No">1.000000e+00</Option>
  </Options>
  <Variables NVar="7">
    <Variable VarIndex="0" Expression="B_s0_ln_FDCHI2" Label="B_s0_ln_FDCHI2" Title="B_s0_ln_FDCHI2" Unit="" Internal="B_s0_ln_FDCHI2" Type="F" Min="5.52172232e+00" Max="1.43609724e+01"/>
    <Variable VarIndex="1" Expression="B_s0_ln_IPCHI2" Label="B_s0_ln_IPCHI2" Title="B_s0_ln_IPCHI2" Unit="" Internal="B_s0_ln_IPCHI2" Type="F" Min="-8.89601803e+00" Max="2.99566317e+00"/>
    <Variable VarIndex="2" Expression="B_s0_ln_EVCHI2" Label="B_s0_ln_EVCHI2" Title="B_s0_ln_EVCHI2" Unit="" Internal="B_s0_ln_EVCHI2" Type="F" Min="-4.45417881e+00" Max="2.30202627e+00"/>
    <Variable VarIndex="3" Expression="B_s0_PT_fiveGeV" Label="B_s0_PT_fiveGeV" Title="B_s0_PT_fiveGeV" Unit="" Internal="B_s0_PT_fiveGeV" Type="F" Min="4.95414808e-03" Max="1.49297647e+01"/>
    <Variable VarIndex="4" Expression="B_s0_Eta" Label="B_s0_Eta" Title="B_s0_Eta" Unit="" Internal="B_s0_Eta" Type="F" Min="1.91479802e+00" Max="8.57907009e+00"/>
    <Variable VarIndex="5" Expression="minK_PT_GeV" Label="minK_PT_GeV" Title="minK_PT_GeV" Unit="" Internal="minK_PT_GeV" Type="F" Min="4.97218758e-01" Max="1.07027111e+01"/>
    <Variable VarIndex="6" Expression="minK_ln_IPCHI2" Label="minK_ln_IPCHI2" Title="minK_ln_IPCHI2" Unit="" Internal="minK_ln_IPCHI2" Type="F" Min="-8.81861115e+00" Max="1.00275764e+01"/>
  </Variables>
  <Spectators NSpec="0"/>
  <Classes NClass="2">
    <Class Name="Signal" Index="0"/>
    <Class Name="Background" Index="1"/>
  </Classes>
  <Transformations NTransformations="1">
    <Transform Name="Normalize">
      <Selection>
        <Input NInputs="7">
          <Input Type="Variable" Label="B_s0_ln_FDCHI2" Expression="B_s0_ln_FDCHI2"/>
          <Input Type="Variable" Label="B_s0_ln_IPCHI2" Expression="B_s0_ln_IPCHI2"/>
          <Input Type="Variable" Label="B_s0_ln_EVCHI2" Expression="B_s0_ln_EVCHI2"/>
          <Input Type="Variable" Label="B_s0_PT_fiveGeV" Expression="B_s0_PT_fiveGeV"/>
          <Input Type="Variable" Label="B_s0_Eta" Expression="B_s0_Eta"/>
          <Input Type="Variable" Label="minK_PT_GeV" Expression="minK_PT_GeV"/>
          <Input Type="Variable" Label="minK_ln_IPCHI2" Expression="minK_ln_IPCHI2"/>
        </Input>
        <Output NOutputs="7">
          <Output Type="Variable" Label="B_s0_ln_FDCHI2" Expression="B_s0_ln_FDCHI2"/>
          <Output Type="Variable" Label="B_s0_ln_IPCHI2" Expression="B_s0_ln_IPCHI2"/>
          <Output Type="Variable" Label="B_s0_ln_EVCHI2" Expression="B_s0_ln_EVCHI2"/>
          <Output Type="Variable" Label="B_s0_PT_fiveGeV" Expression="B_s0_PT_fiveGeV"/>
          <Output Type="Variable" Label="B_s0_Eta" Expression="B_s0_Eta"/>
          <Output Type="Variable" Label="minK_PT_GeV" Expression="minK_PT_GeV"/>
          <Output Type="Variable" Label="minK_ln_IPCHI2" Expression="minK_ln_IPCHI2"/>
        </Output>
      </Selection>
      <Class ClassIndex="0">
        <Ranges>
          <Range Index="0" Min="5.5217223167419434e+00" Max="1.4127758026123047e+01"/>
          <Range Index="1" Min="-8.8960180282592773e+00" Max="2.9913434982299805e+00"/>
          <Range Index="2" Min="-4.4541788101196289e+00" Max="2.3020262718200684e+00"/>
          <Range Index="3" Min="2.3851579055190086e-02" Max="1.4929764747619629e+01"/>
          <Range Index="4" Min="1.9147980213165283e+00" Max="6.4989476203918457e+00"/>
          <Range Index="5" Min="4.9886086583137512e-01" Max="1.0702711105346680e+01"/>
          <Range Index="6" Min="-5.6462783813476562e+00" Max="1.0027576446533203e+01"/>
        </Ranges>
      </Class>
      <Class ClassIndex="1">
        <Ranges>
          <Range Index="0" Min="5.5221686363220215e+00" Max="1.4360972404479980e+01"/>
          <Range Index="1" Min="-4.5222516059875488e+00" Max="2.9956631660461426e+00"/>
          <Range Index="2" Min="-2.4407978057861328e+00" Max="2.2988214492797852e+00"/>
          <Range Index="3" Min="4.9541480839252472e-03" Max="8.3184366226196289e+00"/>
          <Range Index="4" Min="2.0632593631744385e+00" Max="8.5790700912475586e+00"/>
          <Range Index="5" Min="4.9721875786781311e-01" Max="4.5229892730712891e+00"/>
          <Range Index="6" Min="-8.8186111450195312e+00" Max="8.8398380279541016e+00"/>
        </Ranges>
      </Class>
      <Class ClassIndex="2">
        <Ranges>
          <Range Index="0" Min="5.5217223167419434e+00" Max="1.4360972404479980e+01"/>
          <Range Index="1" Min="-8.8960180282592773e+00" Max="2.9956631660461426e+00"/>
          <Range Index="2" Min="-4.4541788101196289e+00" Max="2.3020262718200684e+00"/>
          <Range Index="3" Min="4.9541480839252472e-03" Max="1.4929764747619629e+01"/>
          <Range Index="4" Min="1.9147980213165283e+00" Max="8.5790700912475586e+00"/>
          <Range Index="5" Min="4.9721875786781311e-01" Max="1.0702711105346680e+01"/>
          <Range Index="6" Min="-8.8186111450195312e+00" Max="1.0027576446533203e+01"/>
        </Ranges>
      </Class>
    </Transform>
  </Transformations>
  <MVAPdfs/>
  <Weights>
    <Layout NLayers="3">
      <Layer Index="0" NNeurons="8">
        <Neuron NSynapses="12">
          -1.0095138954029459e-01 1.7026402705347135e+00 9.2624254496114788e-01 1.7619385925468460e+00 -1.4496835872022915e+00 -1.8454880815301238e+00 2.0886006686843619e-01 1.1988980330493744e+00 -5.7639689230216518e-01 -1.0206096733051566e+00 -1.2762524797138455e+00 -3.7507034683696255e-01 
        </Neuron>
        <Neuron NSynapses="12">
          2.8339095966036898e-01 -8.8249627808747177e-01 1.2527077289914701e-01 7.2096248032935484e-01 -1.7854676597987285e-01 2.5947225250073678e+00 -6.3760649798872493e-01 1.0757331799458412e+00 -3.8352731550178792e-01 -8.3032221513668925e-01 5.3919141761416489e-01 7.2766978534187332e-01 
        </Neuron>
        <Neuron NSynapses="12">
          -2.0577806413187933e+00 -5.7720753770435262e-01 9.7851073658171039e-01 -1.1109730262273170e+00 -1.7061064226635116e+00 1.8926702905660802e+00 1.2184131878393101e+00 1.4060986267010296e+00 -3.7406346217986837e-02 1.1937092958562201e-01 5.0012854043743626e-01 1.1256534736735498e-02 
        </Neuron>
        <Neuron NSynapses="12">
          -1.7265949079618312e+00 1.4591731948621474e+00 -1.3568699407073290e+00 1.0582930928263639e+00 1.3237599395361788e+00 -3.9628740123354098e+00 1.3006391138615070e+00 5.3949415813171364e-01 -9.4653185656559313e-01 -9.3205833826151785e-01 9.3356638539736470e-01 -1.7792942783488833e-01 
        </Neuron>
        <Neuron NSynapses="12">
          -1.9649528564729532e-01 2.3678830897832794e+00 6.5276370313905352e-01 1.3489377315346323e+00 -1.2722882912980911e+00 1.7478303682723997e+00 -7.2834933885691133e-01 -1.4415586665404287e+00 -1.6575240469102528e+00 -2.1654976737843641e+00 1.3853889727862738e+00 1.3351324639772204e+00 
        </Neuron>
        <Neuron NSynapses="12">
          5.2466483992156876e-01 4.1649057142531143e-01 -1.1347174556387487e+00 6.2888256465332959e-01 1.5497028736442748e+00 -1.7507753292207626e+00 -1.2891367727414293e-01 -1.9765772765871223e+00 4.0130397772948662e-01 -2.5573348199670781e-01 -2.1327358207594160e-01 -6.4033329075045919e-01 
        </Neuron>
        <Neuron NSynapses="12">
          5.1209770037925850e-01 5.4987707792836149e-01 1.8376784823092573e+00 -3.4822386110998133e-01 -1.9503642121233578e+00 -2.7625878706305875e+00 5.9908042864302136e-01 7.4474521639945113e-01 1.8226356958301411e+00 8.6988454479163424e-01 6.2601913120868080e-01 -1.3048666726028813e+00 
        </Neuron>
        <Neuron NSynapses="12">
          -8.5605116020202132e-01 -8.4792475596060035e-01 1.7429430091401197e+00 -1.0920268470099237e+00 -2.0918376886210330e+00 -8.2495582541938930e+00 1.0745094022441092e-01 8.7026878464135982e-01 1.8846208253168073e+00 -6.8254059124620370e-01 -9.6683454672132507e-01 3.7112392517249115e-01 
        </Neuron>
      </Layer>
      <Layer Index="1" NNeurons="13">
        <Neuron NSynapses="1">
          -4.3121721514626971e-01 
        </Neuron>
        <Neuron NSynapses="1">
          -1.0555378280533645e+00 
        </Neuron>
        <Neuron NSynapses="1">
          -1.5295353881979814e+00 
        </Neuron>
        <Neuron NSynapses="1">
          -9.3158691705759647e-02 
        </Neuron>
        <Neuron NSynapses="1">
          -1.1426689772509162e+00 
        </Neuron>
        <Neuron NSynapses="1">
          -6.3712997540955718e-01 
        </Neuron>
        <Neuron NSynapses="1">
          -7.0249548183335420e-01 
        </Neuron>
        <Neuron NSynapses="1">
          5.5194907847904207e-01 
        </Neuron>
        <Neuron NSynapses="1">
          -1.0184734561776561e+00 
        </Neuron>
        <Neuron NSynapses="1">
          2.4588402374234497e-01 
        </Neuron>
        <Neuron NSynapses="1">
          6.1158752529115790e-02 
        </Neuron>
        <Neuron NSynapses="1">
          -4.2153244830402553e-01 
        </Neuron>
        <Neuron NSynapses="1">
          -1.3940842514716456e-01 
        </Neuron>
      </Layer>
      <Layer Index="2" NNeurons="1">
        <Neuron NSynapses="0"/>
      </Layer>
    </Layout>
  </Weights>
</MethodSetup>
