<?xml version="1.0"?>
<MethodSetup Method="MLP::MLP">
  <GeneralInfo>
    <Info name="TMVA Release" value="4.2.0 [262656]"/>
    <Info name="ROOT Release" value="5.34/20 [336404]"/>
    <Info name="Creator" value="admorris"/>
    <Info name="Date" value="Thu Sep 25 18:20:39 2014"/>
    <Info name="Host" value="Linux lxbuild101.cern.ch 2.6.32-358.2.1.el6.x86_64 #1 SMP Wed Mar 13 08:24:06 CET 2013 x86_64 x86_64 x86_64 GNU/Linux"/>
    <Info name="Dir" value="/afs/cern.ch/work/a/admorris/pkphi/BDT"/>
    <Info name="Training events" value="81321"/>
    <Info name="TrainingTime" value="7.86666568e+02"/>
    <Info name="AnalysisType" value="Classification"/>
  </GeneralInfo>
  <Options>
    <Option name="NCycles" modified="Yes">600</Option>
    <Option name="HiddenLayers" modified="Yes">N+5</Option>
    <Option name="NeuronType" modified="Yes">tanh</Option>
    <Option name="RandomSeed" modified="No">1</Option>
    <Option name="EstimatorType" modified="No">MSE</Option>
    <Option name="NeuronInputType" modified="No">sum</Option>
    <Option name="V" modified="Yes">False</Option>
    <Option name="VerbosityLevel" modified="No">Default</Option>
    <Option name="VarTransform" modified="Yes">Norm</Option>
    <Option name="H" modified="Yes">True</Option>
    <Option name="CreateMVAPdfs" modified="No">False</Option>
    <Option name="IgnoreNegWeightsInTraining" modified="No">False</Option>
    <Option name="TrainingMethod" modified="No">BP</Option>
    <Option name="LearningRate" modified="No">2.000000e-02</Option>
    <Option name="DecayRate" modified="No">1.000000e-02</Option>
    <Option name="TestRate" modified="Yes">5</Option>
    <Option name="EpochMonitoring" modified="No">False</Option>
    <Option name="Sampling" modified="No">1.000000e+00</Option>
    <Option name="SamplingEpoch" modified="No">1.000000e+00</Option>
    <Option name="SamplingImportance" modified="No">1.000000e+00</Option>
    <Option name="SamplingTraining" modified="No">True</Option>
    <Option name="SamplingTesting" modified="No">False</Option>
    <Option name="ResetStep" modified="No">50</Option>
    <Option name="Tau" modified="No">3.000000e+00</Option>
    <Option name="BPMode" modified="No">sequential</Option>
    <Option name="BatchSize" modified="No">-1</Option>
    <Option name="ConvergenceImprove" modified="No">1.000000e-30</Option>
    <Option name="ConvergenceTests" modified="No">-1</Option>
    <Option name="UseRegulator" modified="No">False</Option>
    <Option name="UpdateLimit" modified="No">10000</Option>
    <Option name="CalculateErrors" modified="No">False</Option>
    <Option name="WeightRange" modified="No">1.000000e+00</Option>
  </Options>
  <Variables NVar="6">
    <Variable VarIndex="0" Expression="Lb_ln_FDCHI2" Label="Lb_ln_FDCHI2" Title="Lb_ln_FDCHI2" Unit="" Internal="Lb_ln_FDCHI2" Type="F" Min="6.21461105e+00" Max="1.61434708e+01"/>
    <Variable VarIndex="1" Expression="Lb_ln_IPCHI2" Label="Lb_ln_IPCHI2" Title="Lb_ln_IPCHI2" Unit="" Internal="Lb_ln_IPCHI2" Type="F" Min="-2.50000000e+01" Max="2.70803785e+00"/>
    <Variable VarIndex="2" Expression="Lb_ln_VCHI2" Label="Lb_ln_VCHI2" Title="Lb_ln_VCHI2" Unit="" Internal="Lb_ln_VCHI2" Type="F" Min="-2.15230298e+00" Max="4.84921885e+00"/>
    <Variable VarIndex="3" Expression="Lb_PT" Label="Lb_PT" Title="Lb_PT" Unit="" Internal="Lb_PT" Type="F" Min="2.30835448e-03" Max="5.26518066e+02"/>
    <Variable VarIndex="4" Expression="h_min_PT" Label="h_min_PT" Title="h_min_PT" Unit="" Internal="h_min_PT" Type="F" Min="4.00004983e-01" Max="2.55063648e+01"/>
    <Variable VarIndex="5" Expression="h_min_ln_IP" Label="h_min_ln_IP" Title="h_min_ln_IP" Unit="" Internal="h_min_ln_IP" Type="F" Min="-3.92155647e+00" Max="2.56720424e+00"/>
  </Variables>
  <Spectators NSpec="0"/>
  <Classes NClass="2">
    <Class Name="Signal" Index="0"/>
    <Class Name="Background" Index="1"/>
  </Classes>
  <Transformations NTransformations="1">
    <Transform Name="Normalize">
      <Selection>
        <Input NInputs="6">
          <Input Type="Variable" Label="Lb_ln_FDCHI2" Expression="Lb_ln_FDCHI2"/>
          <Input Type="Variable" Label="Lb_ln_IPCHI2" Expression="Lb_ln_IPCHI2"/>
          <Input Type="Variable" Label="Lb_ln_VCHI2" Expression="Lb_ln_VCHI2"/>
          <Input Type="Variable" Label="Lb_PT" Expression="Lb_PT"/>
          <Input Type="Variable" Label="h_min_PT" Expression="h_min_PT"/>
          <Input Type="Variable" Label="h_min_ln_IP" Expression="h_min_ln_IP"/>
        </Input>
        <Output NOutputs="6">
          <Output Type="Variable" Label="Lb_ln_FDCHI2" Expression="Lb_ln_FDCHI2"/>
          <Output Type="Variable" Label="Lb_ln_IPCHI2" Expression="Lb_ln_IPCHI2"/>
          <Output Type="Variable" Label="Lb_ln_VCHI2" Expression="Lb_ln_VCHI2"/>
          <Output Type="Variable" Label="Lb_PT" Expression="Lb_PT"/>
          <Output Type="Variable" Label="h_min_PT" Expression="h_min_PT"/>
          <Output Type="Variable" Label="h_min_ln_IP" Expression="h_min_ln_IP"/>
        </Output>
      </Selection>
      <Class ClassIndex="0">
        <Ranges>
          <Range Index="0" Min="6.2151021957397461e+00" Max="1.3438893318176270e+01"/>
          <Range Index="1" Min="-8.2890682220458984e+00" Max="2.7067143917083740e+00"/>
          <Range Index="2" Min="4.4334951788187027e-02" Max="4.5781645774841309e+00"/>
          <Range Index="3" Min="6.1206884682178497e-02" Max="5.3187446594238281e+01"/>
          <Range Index="4" Min="4.0007221698760986e-01" Max="8.2292423248291016e+00"/>
          <Range Index="5" Min="-3.8420445919036865e+00" Max="1.0995273590087891e+00"/>
        </Ranges>
      </Class>
      <Class ClassIndex="1">
        <Ranges>
          <Range Index="0" Min="6.2146110534667969e+00" Max="1.6143470764160156e+01"/>
          <Range Index="1" Min="-2.5000000000000000e+01" Max="2.7080378532409668e+00"/>
          <Range Index="2" Min="-2.1523029804229736e+00" Max="4.8492188453674316e+00"/>
          <Range Index="3" Min="2.3083544801920652e-03" Max="5.2651806640625000e+02"/>
          <Range Index="4" Min="4.0000498294830322e-01" Max="2.5506364822387695e+01"/>
          <Range Index="5" Min="-3.9215564727783203e+00" Max="2.5672042369842529e+00"/>
        </Ranges>
      </Class>
      <Class ClassIndex="2">
        <Ranges>
          <Range Index="0" Min="6.2146110534667969e+00" Max="1.6143470764160156e+01"/>
          <Range Index="1" Min="-2.5000000000000000e+01" Max="2.7080378532409668e+00"/>
          <Range Index="2" Min="-2.1523029804229736e+00" Max="4.8492188453674316e+00"/>
          <Range Index="3" Min="2.3083544801920652e-03" Max="5.2651806640625000e+02"/>
          <Range Index="4" Min="4.0000498294830322e-01" Max="2.5506364822387695e+01"/>
          <Range Index="5" Min="-3.9215564727783203e+00" Max="2.5672042369842529e+00"/>
        </Ranges>
      </Class>
    </Transform>
  </Transformations>
  <MVAPdfs/>
  <Weights>
    <Layout NLayers="3">
      <Layer Index="0" NNeurons="7">
        <Neuron NSynapses="11">
          -2.0539058373661132e-01 6.2231138111403794e-01 1.9576898183633564e+00 -1.1238180748656420e-02 -9.2302921648318415e-01 2.0268558279628912e-01 -1.6718155711549978e-01 3.3304578445232330e-01 3.3613684416900824e-01 -4.3828366750033038e-01 -1.0127693577110837e+00 
        </Neuron>
        <Neuron NSynapses="11">
          -2.1026290659085665e+00 -4.1503783326718957e-01 -3.7763215835047377e+00 -3.2318586288984732e+00 -1.0458549761455147e+00 -3.5135206509421540e-01 5.0517367822183790e+00 -5.6684146799223600e-01 1.7029285207653146e+00 3.4599518259314443e-01 -3.7150648520599279e+00 
        </Neuron>
        <Neuron NSynapses="11">
          2.7271873915797540e-01 -6.7603021371026983e-03 -3.0261065842589892e+00 2.4481892950236329e-02 1.7075849030029879e+00 -5.2224989908715373e-02 4.5827083888774595e-01 3.9511208970476436e-01 -3.0231568870163472e-01 3.4320506351378741e+00 1.0058516538320152e+00 
        </Neuron>
        <Neuron NSynapses="11">
          -4.1953843177255932e+00 -7.9605465984969204e-01 -2.2927259986107220e+00 -2.4363349782499477e+00 3.1932309219301969e+00 -1.9397953432385979e+00 5.6035100124705108e+00 2.5879802586898641e+00 2.7100888872126645e+00 1.4154218970090608e+00 -2.1102554358701440e+00 
        </Neuron>
        <Neuron NSynapses="11">
          -2.2985087802976367e+00 -2.9737112478519427e+00 9.3849709157437888e-01 8.2975990802451243e+00 4.3133027258637462e+00 1.0962042480263121e+00 4.4329407019509492e+00 2.7447788162823783e+00 -2.5314316672108617e+00 1.2516576851649268e+00 -4.1572946062241805e+00 
        </Neuron>
        <Neuron NSynapses="11">
          2.8161961529929971e+00 1.0998480125354135e-01 -3.2884932400758315e-01 3.0524838266096550e+00 1.6515900802916688e+00 -4.5652564612997942e-01 1.4589889756102365e+00 6.9782662632542314e-01 7.0410083640621146e-01 1.8770846758558788e+00 9.9438584115507456e-01 
        </Neuron>
        <Neuron NSynapses="11">
          -3.3075725153629141e+00 -2.1843168209230854e+00 5.1632638106631275e+00 9.4271079161938260e+00 7.6874558996433020e+00 -7.6800832873314528e-01 4.3903795045420466e+00 5.5277518809111461e+00 -2.0800431023536817e-01 1.0062416591261900e+00 -4.7132604141373395e+00 
        </Neuron>
      </Layer>
      <Layer Index="1" NNeurons="12">
        <Neuron NSynapses="1">
          -4.6189427768729951e-01 
        </Neuron>
        <Neuron NSynapses="1">
          3.1595750065116529e-01 
        </Neuron>
        <Neuron NSynapses="1">
          1.9649190765047911e-01 
        </Neuron>
        <Neuron NSynapses="1">
          6.7596304231431381e-01 
        </Neuron>
        <Neuron NSynapses="1">
          7.1086681595751566e-01 
        </Neuron>
        <Neuron NSynapses="1">
          -1.9234303570799083e-01 
        </Neuron>
        <Neuron NSynapses="1">
          -5.8657500774864091e-01 
        </Neuron>
        <Neuron NSynapses="1">
          -4.2071264923273388e-01 
        </Neuron>
        <Neuron NSynapses="1">
          3.4312481517226423e-01 
        </Neuron>
        <Neuron NSynapses="1">
          -7.6194152028017589e-02 
        </Neuron>
        <Neuron NSynapses="1">
          -3.7886547777876317e-01 
        </Neuron>
        <Neuron NSynapses="1">
          -8.9415287381797237e-01 
        </Neuron>
      </Layer>
      <Layer Index="2" NNeurons="1">
        <Neuron NSynapses="0"/>
      </Layer>
    </Layout>
  </Weights>
</MethodSetup>
